digraph Tree {
node [shape=box, style="filled, rounded", color="black", fontname=helvetica] ;
edge [fontname=helvetica] ;
0 [label="total <= 0.0\ngini = 0.5\nsamples = 42488\nvalue = [21244, 21244]\nclass = 1", fillcolor="#ffffff"] ;
1 [label="average <= 0.0\ngini = 0.48\nsamples = 19721\nvalue = [11854, 7867]\nclass = 1", fillcolor="#f6d5bc"] ;
0 -> 1 [labeldistance=2.5, labelangle=45, headlabel="True"] ;
2 [label="total <= 0.0\ngini = 0.411\nsamples = 1225\nvalue = [354, 871]\nclass = 0", fillcolor="#89c5f0"] ;
1 -> 2 ;
3 [label="average <= 0.0\ngini = 0.471\nsamples = 725\nvalue = [275, 450]\nclass = 0", fillcolor="#b2d9f5"] ;
2 -> 3 ;
4 [label="gini = 0.385\nsamples = 445\nvalue = [116, 329]\nclass = 0", fillcolor="#7fc0ee"] ;
3 -> 4 ;
5 [label="gini = 0.491\nsamples = 280\nvalue = [159, 121]\nclass = 1", fillcolor="#f9e1d0"] ;
3 -> 5 ;
6 [label="ucl <= 0.0\ngini = 0.266\nsamples = 500\nvalue = [79, 421]\nclass = 0", fillcolor="#5eafea"] ;
2 -> 6 ;
7 [label="gini = 0.0\nsamples = 10\nvalue = [10, 0]\nclass = 1", fillcolor="#e58139"] ;
6 -> 7 ;
8 [label="gini = 0.242\nsamples = 490\nvalue = [69, 421]\nclass = 0", fillcolor="#59ade9"] ;
6 -> 8 ;
9 [label="total <= 0.0\ngini = 0.47\nsamples = 18496\nvalue = [11500, 6996]\nclass = 1", fillcolor="#f5ceb1"] ;
1 -> 9 ;
10 [label="average <= 0.0\ngini = 0.341\nsamples = 1648\nvalue = [1289, 359]\nclass = 1", fillcolor="#eca470"] ;
9 -> 10 ;
11 [label="gini = 0.0\nsamples = 297\nvalue = [297, 0]\nclass = 1", fillcolor="#e58139"] ;
10 -> 11 ;
12 [label="gini = 0.39\nsamples = 1351\nvalue = [992, 359]\nclass = 1", fillcolor="#eeaf81"] ;
10 -> 12 ;
13 [label="average <= 0.0\ngini = 0.478\nsamples = 16848\nvalue = [10211, 6637]\nclass = 1", fillcolor="#f6d3ba"] ;
9 -> 13 ;
14 [label="gini = 0.5\nsamples = 5506\nvalue = [2761, 2745]\nclass = 1", fillcolor="#fffefe"] ;
13 -> 14 ;
15 [label="gini = 0.451\nsamples = 11342\nvalue = [7450, 3892]\nclass = 1", fillcolor="#f3c3a0"] ;
13 -> 15 ;
16 [label="average <= 0.0\ngini = 0.485\nsamples = 22767\nvalue = [9390, 13377]\nclass = 0", fillcolor="#c4e2f7"] ;
0 -> 16 [labeldistance=2.5, labelangle=-45, headlabel="False"] ;
17 [label="average <= 0.0\ngini = 0.356\nsamples = 4950\nvalue = [1145, 3805]\nclass = 0", fillcolor="#75baed"] ;
16 -> 17 ;
18 [label="average <= 0.0\ngini = 0.32\nsamples = 3180\nvalue = [637, 2543]\nclass = 0", fillcolor="#6bb6ec"] ;
17 -> 18 ;
19 [label="gini = 0.364\nsamples = 2591\nvalue = [619, 1972]\nclass = 0", fillcolor="#77bced"] ;
18 -> 19 ;
20 [label="gini = 0.059\nsamples = 589\nvalue = [18, 571]\nclass = 0", fillcolor="#3fa0e6"] ;
18 -> 20 ;
21 [label="total <= 0.001\ngini = 0.409\nsamples = 1770\nvalue = [508, 1262]\nclass = 0", fillcolor="#89c4ef"] ;
17 -> 21 ;
22 [label="gini = 0.454\nsamples = 290\nvalue = [189, 101]\nclass = 1", fillcolor="#f3c4a3"] ;
21 -> 22 ;
23 [label="gini = 0.338\nsamples = 1480\nvalue = [319, 1161]\nclass = 0", fillcolor="#6fb8ec"] ;
21 -> 23 ;
24 [label="total <= 0.001\ngini = 0.497\nsamples = 17817\nvalue = [8245, 9572]\nclass = 0", fillcolor="#e4f1fb"] ;
16 -> 24 ;
25 [label="average <= 0.001\ngini = 0.493\nsamples = 7758\nvalue = [4329, 3429]\nclass = 1", fillcolor="#fae5d6"] ;
24 -> 25 ;
26 [label="gini = 0.495\nsamples = 1990\nvalue = [891, 1099]\nclass = 0", fillcolor="#daecfa"] ;
25 -> 26 ;
27 [label="gini = 0.482\nsamples = 5768\nvalue = [3438, 2330]\nclass = 1", fillcolor="#f7d6bf"] ;
25 -> 27 ;
28 [label="average <= 0.002\ngini = 0.475\nsamples = 10059\nvalue = [3916, 6143]\nclass = 0", fillcolor="#b7dbf6"] ;
24 -> 28 ;
29 [label="gini = 0.408\nsamples = 3353\nvalue = [959, 2394]\nclass = 0", fillcolor="#88c4ef"] ;
28 -> 29 ;
30 [label="gini = 0.493\nsamples = 6706\nvalue = [2957, 3749]\nclass = 0", fillcolor="#d5eafa"] ;
28 -> 30 ;
}